0.02056464 -0.0813256   0.17717388 -0.07368042  0.03092676  0.15147157 -0.04844612  0.0932933   0.02369743  0.11732385  0.23568083  0.12313749  0.07056513 -0.02290654  0.06112427  0.06448684
 -0.03199338  0.01320861 -0.0426796   0.13284937 -0.01157123  0.1527396  -0.0534166   0.06607116  0.01671227  0.15012327  0.04049451  0.07022239 -0.19184704 -0.17682667  0.03248122 -0.07126497
  0.04649475  0.00533838  0.14948092  0.09877678  0.27515888  0.09560374  0.06616195 -0.04451815  0.2418396   0.16388215  0.1001286  -0.00184017  0.06653028 -0.07835112  0.1765907  -0.00839609
  0.08887519 -0.03505675  0.03625387  0.13626768  0.03289295  0.01064921  0.09645309  0.08032639  0.00884422  0.09067575  0.06532054  0.02260589  0.05473499  0.12456018 -0.01196711  0.11654288
  0.12159213  0.11070175  0.02361924  0.09710161  0.0735763   0.03558512 -0.0072455   0.1256608   0.07848667 -0.00724502  0.04162552  0.06172009 -0.03178568  0.0286779  -0.06296321  0.0210807
 -0.06232104 -0.09394278  0.05720505  0.18611716  0.12393376  0.00768825  0.12708649 -0.04291268 -0.03900906 -0.04559861 -0.0584146   0.23111373  0.01776133 -0.09411888 -0.01856051 -0.03621578
 -0.08824876  0.1220172   0.03418456 -0.01046816  0.16491549  0.1757833   0.04585683  0.12354808  0.01882913  0.1327842  -0.02608852 -0.04662937  0.11924738 -0.01074552 -0.06875566  0.03502533
 -0.00428557  0.05030847 -0.10696625  0.0265833   0.03833121  0.10349258  0.04457645  0.0355445  -0.0826491   0.16783255  0.05336956  0.02189991 -0.04765435 -0.0028983   0.17113839  0.15917097
